svm_type c_svc
kernel_type rbf
gamma 0.2
nr_class 5
total_sv 104
rho 0.1227 0.288977 0.302711 0.305308 0.20122 0.167954 0.126841 0.00127637 -0.066955 -0.0428965
label 1 2 3 4 5
nr_sv 25 18 19 21 21
SV
0.01400536589361554 0 0 0 1:1.457143 2:2.207937 3:2.284921 4:1.59127 5:1.72381 6:2.035714 7:2.211111 8:1.451587 9:1.440476 10:1.77619 11:1.784921 12:0.924603 13:1.431746 14:1.810317 15:1.907143 16:1.718254 
0.3 0.3 0.3 0.3 1:1.105556 2:2.13254 3:2.402381 4:1.69127 5:1.412698 6:1.95 7:2.133333 8:1.710317 9:1.376984 10:1.76746 11:1.875397 12:1.165873 13:1.361905 14:1.82381 15:2.069048 16:1.913492 
0 0.1862385661613088 0.09377808229850168 0.2034861391204971 1:1.307143 2:2.176984 3:2.296032 4:1.605556 5:1.53254 6:2.003968 7:2.119841 8:1.674603 9:1.437302 10:1.830952 11:1.906349 12:1.119841 13:1.460317 14:1.848413 15:1.890476 16:1.842857 
0 0 0 0.06177748476061105 1:1.533333 2:1.862698 3:1.948413 4:2.039683 5:1.073016 6:1.742063 7:1.929365 8:1.9 9:1.242857 10:1.580159 11:1.361111 12:1.252381 13:1.33254 14:1.87619 15:1.538889 16:1.113492 
0 0 0 0.3 1:1.559524 2:1.895238 3:1.981746 4:2.053968 5:1.054762 6:1.756349 7:1.936508 8:1.934127 9:1.280952 10:1.592857 11:1.405556 12:1.3 13:1.351587 14:1.909524 15:1.577778 16:1.161111 
0 0 0 0.3 1:1.557937 2:1.895238 3:1.985714 4:2.046825 5:1.069048 6:1.765079 7:1.938889 8:1.942857 9:1.310317 10:1.593651 11:1.40873 12:1.3 13:1.366667 14:1.923016 15:1.606349 16:1.180952 
0 0 0 0.2805151266085719 1:1.53254 2:1.838889 3:1.866667 4:1.948413 5:1.152381 6:1.707937 7:1.729365 8:1.974603 9:1.275397 10:1.442857 11:1.188889 12:1.146032 13:1.305556 14:1.69127 15:1.445238 16:0.988889 
0.3 0.3 0.3 0.3 1:1.354762 2:1.792857 3:1.881746 4:1.887302 5:0.778571 6:0.878571 7:1.853175 8:2.119841 9:1.284921 10:1.440476 11:1.15 12:1.251587 13:1.354762 14:1.831746 15:1.570635 16:1.086508 
0.3 0.3 0.3 0.3 1:1.701587 2:1.70873 3:1.920635 4:1.884127 5:0.923016 6:1.855556 7:1.693651 8:1.771429 9:1.199206 10:1.234127 11:1.038095 12:0.998413 13:1.135714 14:1.200794 15:0.981746 16:0.695238 
0.3 0 0.2039370467412909 0.3 1:1.638889 2:2.00873 3:1.930159 4:1.754762 5:1.328571 6:1.516667 7:1.669048 8:1.650794 9:1.119048 10:1.150794 11:1.046825 12:0.965079 13:1.206349 14:1.551587 15:1.342857 16:0.855556 
0.2533846870653054 0.06737428669900547 0 0 1:1.783333 2:2.03254 3:2.046825 4:2.020635 5:1.407937 6:1.931746 7:1.919841 8:2.113492 9:1.40873 10:1.495238 11:1.411111 12:1.396825 13:1.519048 14:1.896825 15:1.728571 16:1.207937 
0 0.1550536782157119 0 0.3 1:1.802381 2:1.95 3:1.953175 4:1.475397 5:1.36746 6:1.664286 7:1.500794 8:1.484921 9:1.611905 10:1.813492 11:1.92381 12:1.730952 13:1.619048 14:1.9 15:1.87381 16:1.495238 
0.3 0.284026471615491 0.3 0.0401043120313676 1:2.099206 2:2.424603 3:2.305556 4:1.060317 5:1.656349 6:2.146825 7:1.830159 8:1.25 9:1.57381 10:1.612698 11:1.370635 12:0.47381 13:1.607143 14:1.727778 15:1.22619 16:0.076984 
0.3 0.3 0.3 0.3 1:1.697619 2:1.719841 3:1.078571 4:0.536508 5:1.211905 6:1.640476 7:1.230952 8:0.745238 9:1.543651 10:1.531746 11:1.665873 12:0.755556 13:1.429365 14:1.769841 15:1.59127 16:0.914286 
0 0.07818079076745993 0.3 0 1:1.666667 2:1.746825 3:1.459524 4:0.830952 5:1.135714 6:1.561111 7:1.318254 8:0.761905 9:1.568254 10:1.489683 11:1.549206 12:0.780159 13:1.440476 14:1.714286 15:1.253968 16:0.915079 
0.1502424990207049 0.1214707960996244 0.3 0.01418560451215863 1:2.037302 2:2.333333 3:2.405556 4:0.755556 5:1.409524 6:2.129365 7:1.753175 8:1.199206 9:1.861111 10:2.266667 11:2.33254 12:0 13:1.745238 14:1.961905 15:1.665873 16:0.729365 
0 0 0.1098558342254787 0 1:2.019048 2:2.314286 3:2.340476 4:0.696825 5:1.376984 6:2.089683 7:1.781746 8:1.210317 9:1.769048 10:2.219841 11:2.307937 12:0 13:1.664286 14:1.888095 15:1.630952 16:0.739683 
0.3 0.3 0.3 0.3 1:1.945238 2:2.184921 3:1.810317 4:0.626984 5:1.502381 6:1.67619 7:1.427778 8:1.064286 9:1.921429 10:2.349206 11:2.799206 12:0.865873 13:1.786508 14:1.888889 15:1.36746 16:0 
0 0 0.04836140581562175 0.1140803602166996 1:2.035714 2:2.284921 3:2.202381 4:0.753968 5:1.578571 6:1.719841 7:1.488095 8:1.196825 9:1.827778 10:2.32619 11:2.780159 12:0.955556 13:1.711111 14:1.865873 15:1.329365 16:0 
0.0367804976628479 0.1828213655101062 0 0.1997562545102371 1:1.77381 2:2.213492 3:2.349206 4:0.811905 5:1.150794 6:1.749206 7:1.45 8:1.207143 9:1.85 10:2.2 11:2.894444 12:0.97381 13:1.836508 14:1.942857 15:1.453175 16:0.038889 
0 0 0.3 0.001222227816690606 1:1.802381 2:2.125397 3:1.948413 4:0.703175 5:0.92381 6:1.583333 7:1.389683 8:1.049206 9:1.994444 10:2.373016 11:2.627778 12:0.330159 13:1.840476 14:1.780952 15:1.13254 16:0.379365 
0.2025004517790164 0.3 0.2178012547888395 0.3 1:1.787302 2:2.129365 3:2.000794 4:0.738095 5:0.723016 6:1.550794 7:1.354762 8:1.134921 9:1.945238 10:2.383333 11:2.652381 12:0.302381 13:1.853175 14:1.811905 15:1.190476 16:0.629365 
0 0 0.3 0 1:1.999206 2:2.419048 3:2.504762 4:1.188889 5:1.378571 6:1.927778 7:1.312698 8:1.143651 9:1.888095 10:2.307937 11:2.09127 12:0.786508 13:1.552381 14:1.780952 15:1.038889 16:0 
0.1100676569075138 0 0 0 1:1.97381 2:2.426984 3:2.602381 4:1.303968 5:1.169841 6:1.946032 7:1.392857 8:1.376984 9:1.904762 10:2.377778 11:2.203175 12:0.878571 13:1.628571 14:1.83254 15:1.104762 16:0 
0 0.04816627763851418 0 0.07447250566765778 1:1.860317 2:2.415079 3:2.463492 4:1.284127 5:0.97619 6:1.925397 7:1.339683 8:1.272222 9:1.957143 10:2.431746 11:2.242857 12:0.92381 13:1.656349 14:1.852381 15:1.102381 16:0 
-0 0 0.02691707276674309 0 1:1.776984 2:2.603968 3:2.41746 4:2.187302 5:1.452381 6:1.992857 7:2.842857 8:1.701587 9:0 10:0 11:0 12:0 13:0.000794 14:0 15:0 16:0 
-0.3 0.3 0.3 0.3 1:0.902381 2:2.222222 3:2.29127 4:1.561905 5:1.170635 6:1.664286 7:2.263492 8:2.878571 9:0 10:0 11:0 12:0.392857 13:0.17381 14:0.153968 15:0.672222 16:0 
-0.1242678831996573 0 0.1846608795592021 0 1:1.677778 2:2.434921 3:2.107143 4:1.422222 5:1.647619 6:1.916667 7:2.284921 8:2.253968 9:0.710317 10:0.737302 11:0.233333 12:0 13:0.506349 14:0.6 15:0.70873 16:0 
-0 0.0687455111964336 0 0.04430961762833636 1:1.388889 2:2.620635 3:2.469048 4:2.195238 5:1.6 6:1.91746 7:2.260317 8:2.812698 9:0 10:0 11:0 12:0 13:0.116667 14:0 15:0 16:0 
-0.06835351901618453 0 0 0 1:2.330159 2:2.484921 3:2.278571 4:2.153968 5:1.795238 6:2.13254 7:2.29127 8:2.28254 9:0.735714 10:0.457937 11:0.496825 12:0.595238 13:1.006349 14:0.807937 15:0.727778 16:0.401587 
-0.3 0.3 0.3 0.2821634844079374 1:2.309524 2:2.457143 3:2.243651 4:2.130159 5:1.749206 6:2.096825 7:2.262698 8:2.238889 9:0.765873 10:0.484921 11:0.584921 12:0.645238 13:1.016667 14:0.829365 15:0.740476 16:0.519048 
-0.3 0.3 0.3 0.3 1:2.297619 2:2.430952 3:2.187302 4:2.107143 5:1.728571 6:2.07619 7:2.206349 8:2.234921 9:0.746825 10:0.511905 11:0.598413 12:0.665873 13:1.006349 14:0.842857 15:0.869841 16:0.576984 
-0.3 0 0.05750689352977834 0.3 1:2.273016 2:2.415873 3:2.14127 4:2.111905 5:1.634921 6:1.994444 7:2.120635 8:2.203175 9:0.737302 10:0.489683 11:0.575397 12:0.635714 13:1.003175 14:0.779365 15:0.819048 16:0.529365 
-0 0.06043211581336731 0 0 1:2.338095 2:2.519048 3:2.405556 4:2.284921 5:1.9 6:2.322222 7:2.380952 8:2.334921 9:0.66746 10:0.424603 11:0.523016 12:0.586508 13:0.978571 14:0.790476 15:0.630952 16:0.402381 
-0 0.3 0.2898110287561775 0.1846920441882796 1:2.373016 2:2.526984 3:2.444444 4:2.415079 5:2.269048 6:2.345238 7:2.437302 8:2.452381 9:0 10:0 11:0.057937 12:0 13:0 14:0 15:0 16:0 
-0.3 0.3 0.3 0.3 1:2.376984 2:2.529365 3:2.450794 4:2.414286 5:2.275397 6:2.357143 7:2.45 8:2.536508 9:0 10:0 11:0 12:0 13:0 14:0 15:0 16:0 
-0.3 0.3 0.3 0.3 1:2.360317 2:2.393651 3:2.153175 4:0.80873 5:1.078571 6:1.654762 7:1.19127 8:0 9:0 10:0 11:0 12:0 13:0 14:0 15:0 16:0 
-0 0 0 0.09524529253761006 1:2.328571 2:2.465079 3:2.55 4:1.953175 5:1.264286 6:2.021429 7:2.012698 8:2.11746 9:0.411111 10:0.57619 11:0.65873 12:0.869841 13:0.206349 14:0.168254 15:0.223016 16:0.561111 
-0.02699452578220615 0.1990640633760915 0.3 0.1510602666766272 1:2.046825 2:2.32619 3:2.523016 4:1.134127 5:0.594444 6:2.25 7:1.986508 8:1.573016 9:0 10:0.270635 11:0.000794 12:0.231746 13:0 14:0 15:0 16:0 
-0 0.07905314103233017 0.2484318822411152 0.05871358745502725 1:1.906349 2:2.442857 3:2.67381 4:1.846825 5:0.343651 6:1.046825 7:1.231746 8:0.895238 9:0 10:0 11:0 12:0 13:0 14:0 15:0 16:0 
-0.3 0.3 0.3 0.3 1:1.77381 2:2.107143 3:2.034921 4:0.757143 5:0.760317 6:1.400794 7:1.306349 8:1.300794 9:1.295238 10:1.500794 11:0.60873 12:0.235714 13:0.034127 14:0 15:0 16:0 
-0.3 0.3 0.3 0.3 1:2.02381 2:2.504762 3:2.956349 4:2.028571 5:0.34127 6:0.537302 7:1.255556 8:1.037302 9:0 10:0 11:0 12:0 13:0 14:0 15:0 16:0 
-0.2473652303309559 0.3 0.3 0.3 1:2.077778 2:2.555556 3:2.955556 4:2.005556 5:0.349206 6:0.504762 7:1.261905 8:1.211905 9:0 10:0 11:0 12:0 13:0 14:0 15:0 16:0 
-0.1780405598362818 -0.1576464843826918 0.2863256077136081 0.2551741160748997 1:0 2:0 3:0 4:0 5:0 6:0.910317 7:2.011905 8:1.170635 9:2.059524 10:2.37619 11:2.513492 12:2.377778 13:1.97381 14:1.994444 15:2.415873 16:2.006349 
-0.03132568289530976 -0.05117768884318395 0 0 1:0 2:0 3:0 4:0 5:0 6:1.000794 7:1.955556 8:1.510317 9:2.074603 10:2.406349 11:2.563492 12:2.459524 13:1.843651 14:2 15:2.346032 16:1.992857 
-0.2816346193682681 -0.3 0.3 0.3 1:0 2:0 3:0 4:0.690476 5:0 6:1.097619 7:2.20873 8:2.589683 9:1.600794 10:2.234921 11:2.577778 12:2.463492 13:1.574603 14:1.495238 15:2.08254 16:0.253968 
-0.3 -0.3 0.3 0.3 1:0 2:0 3:0 4:0.837302 5:0 6:1.136508 7:2.225397 8:2.680952 9:1.590476 10:2.170635 11:2.488095 12:2.399206 13:1.560317 14:1.488095 15:2.048413 16:0.399206 
-0 -0 0.1743734959040102 0.3 1:0 2:0 3:0 4:0.76746 5:0 6:1.130159 7:2.24127 8:2.659524 9:1.627778 10:2.227778 11:2.581746 12:2.483333 13:1.572222 14:1.523016 15:2.113492 16:0.600794 
-0.1722610503040548 -0.1281419026738769 0.2636416885495941 0.272039342125608 1:0 2:0 3:0 4:0 5:0 6:0 7:0.745238 8:1.963492 9:1.923016 10:2.323016 11:2.47619 12:2.398413 13:1.701587 14:2.213492 15:2.563492 16:2.027778 
-0 -0.07357180391858169 0.006101091927275516 0 1:0 2:0 3:0 4:0 5:0 6:0 7:0.886508 8:1.972222 9:1.934921 10:2.337302 11:2.473016 12:2.415873 13:1.72619 14:2.228571 15:2.561905 16:2.056349 
-0.05041986107724465 -0.09505584246150332 0.1415803207504674 0.1019356728182173 1:0 2:0 3:0 4:0 5:0 6:0 7:0 8:0 9:1.848413 10:2.335714 11:2.316667 12:2.446825 13:1.926984 14:2.631746 15:2.625397 16:2.146032 
-0 -0 0 0.02517052430008792 1:0.614286 2:0.547619 3:0.497619 4:0.334127 5:0.333333 6:0.569048 7:0.796825 8:0.820635 9:1.547619 10:1.764286 11:2.009524 12:1.811905 13:1.733333 14:2.094444 15:2.189683 16:2.074603 
-0.1661901376354975 -0.1899581967667488 0.3 0.3 1:0.069841 2:0.043651 3:0 4:0 5:0.021429 6:0.053175 7:0.15873 8:0.107937 9:0.784127 10:1.204762 11:1.640476 12:1.65873 13:1.472222 14:1.860317 15:1.836508 16:1.511111 
-0.3 -0.3 0.3 0.3 1:0 2:0 3:0 4:0 5:0 6:0 7:0 8:0 9:0.081746 10:1.789683 11:1.969841 12:2.049206 13:1.897619 14:2.297619 15:2.207937 16:1.828571 
-0.3 -0.3 0.3 0.3 1:0.971429 2:0.975397 3:0.794444 4:0.560317 5:0.764286 6:0.888095 7:1.016667 8:0.824603 9:1.738889 10:1.92619 11:2.009524 12:1.939683 13:1.969841 14:2.227778 15:2.053968 16:1.350794 
-0.2336095543422563 -0.2278557229306226 0.3 0.3 1:1.07381 2:0.600794 3:0 4:0.054762 5:0 6:0 7:0.015079 8:0.146032 9:1.553968 10:2.100794 11:2.77381 12:1.88254 13:1.968254 14:2.371429 15:2.430952 16:2.343651 
-0.06669097018280482 -0.08388718944101346 0.08243912059505716 0.05751395667294715 1:0 2:0 3:0 4:0 5:0 6:0 7:0.884921 8:0.49127 9:2.221429 10:2.499206 11:2.640476 12:2.116667 13:2.269048 14:2.399206 15:2.497619 16:2.479365 
-0 -0 0 0.0117090415363563 1:0 2:0 3:0 4:0 5:0 6:0 7:0.915873 8:0.116667 9:2.12619 10:2.548413 11:2.938889 12:2.057143 13:2.319048 14:2.588095 15:2.456349 16:1.976984 
-0.3 -0.3 0.3 0.3 1:0 2:0 3:0 4:0 5:0 6:0 7:0.738095 8:0.231746 9:2.019841 10:2.426984 11:2.984921 12:1.252381 13:1.692857 14:1.695238 15:1.230952 16:0.044444 
-0 -0 0.1113317879883245 0.04095519099299207 1:0 2:0 3:0 4:0 5:0 6:0 7:0 8:0 9:2.060317 10:2.488889 11:2.648413 12:0.477778 13:2.596825 14:2.707143 15:2.119841 16:0.542063 
-0.2431597970655039 -0.3 0.3 0.3 1:0 2:0 3:0 4:0 5:0 6:0 7:0 8:0 9:2.192857 10:2.471429 11:2.260317 12:0.093651 13:2.722222 14:2.688889 15:2.02619 16:0 
-0.3 -0.3 0.3 0.3 1:0 2:0 3:0 4:0 5:0 6:0 7:0 8:0 9:2.472222 10:2.52619 11:1.812698 12:0 13:2.566667 14:2.552381 15:1.421429 16:0 
-0 -0 -0.0007770556605570747 0 1:1.712698 2:0.87619 3:0 4:0 5:1.7 6:0.650794 7:0.239683 8:0 9:1.388095 10:0.977778 11:0.234127 12:0 13:1.740476 14:1.45873 15:0.336508 16:0 
-0.3 -0.3 -0.3 0.3 1:1.495238 2:0 3:0 4:0 5:1.513492 6:0.603175 7:0 8:0 9:0.850794 10:0 11:0 12:0 13:0.847619 14:0 15:0 16:0 
-0.1688348926704029 -0.2775224536278909 -0.3 0.3 1:1.287302 2:0 3:0 4:0 5:1.673016 6:0.615873 7:0 8:0 9:1.334921 10:0.342857 11:0 12:0 13:1.126984 14:0.195238 15:0 16:0 
-0 -0 -0.04878297101043484 0.01945752950983943 1:1.444444 2:0 3:0 4:0 5:1.734127 6:0.738889 7:0.000794 8:0 9:1.28254 10:0.315873 11:0 12:0 13:1.030952 14:0.354762 15:0 16:0 
-0.08098404751631925 -0 -0 0 1:1.536508 2:0.280952 3:0 4:0 5:2.039683 6:1.280952 7:0.019048 8:0 9:1.802381 10:0.770635 11:0 12:0 13:1.459524 14:0.7 15:0 16:0 
-0.103630141853347 -0.2198187900699937 -0.3 0.2813392751245861 1:1.695238 2:0.507143 3:0 4:0 5:2.120635 6:1.276984 7:0.319841 8:0 9:1.907937 10:0.838889 11:0.247619 12:0 13:1.728571 14:1.199206 15:0 16:0 
-0 -0.1559312508407641 -0.07594850788558248 0.1476456574617498 1:1.705556 2:1.668254 3:1.053968 4:0 5:1.599206 6:1.589683 7:0.818254 8:0.180159 9:1.375397 10:0.85 11:0.657143 12:0.97619 13:1.246825 14:1.364286 15:0 16:0 
-0.2585877468836058 -0 -0 0 1:1.599206 2:1.642857 3:1.230952 4:0 5:1.544444 6:1.662698 7:0.910317 8:0.25 9:1.430952 10:1.014286 11:0.777778 12:0.860317 13:1.293651 14:1.40873 15:0 16:0 
-0.3 -0.3 -0.2555154647248318 0.2615980872165624 1:2.269841 2:2.377778 3:1.904762 4:0.354762 5:1.866667 6:2.507143 7:1.725397 8:0.716667 9:1.856349 10:1.796825 11:1.215079 12:0 13:1.418254 14:1.524603 15:0.516667 16:0 
-0.3 -0.2167531941907103 -0.3 0.3 1:1.753175 2:1.735714 3:0.911905 4:0 5:1.374603 6:1.551587 7:1.572222 8:0.351587 9:1.323016 10:1.261905 11:1.123016 12:0.050794 13:1.49127 14:1.535714 15:1.257143 16:0.669048 
-0.229561107999681 -0 -0 0 1:1.58254 2:1.611905 3:0.81746 4:0 5:1.280159 6:1.536508 7:0.905556 8:0 9:1.673016 10:1.497619 11:1.154762 12:0 13:1.648413 14:1.755556 15:0.719048 16:0 
-0 -0.08141978138551952 -0.1810010369826137 0.1340702189716332 1:1.679365 2:1.63254 3:0.196825 4:0 5:0.745238 6:0.980159 7:0 8:0 9:1.553175 10:1.116667 11:0 12:0 13:1.280159 14:1.236508 15:0 16:0 
-0.3 -0.3 -0.3 0.3 1:1.968254 2:2.55873 3:2.023016 4:1.55873 5:0.833333 6:1.784921 7:1.773016 8:1.196032 9:0 10:0 11:0 12:0 13:0 14:0 15:0 16:0 
-0.3 -0.3 -0.3 0.3 1:0.256349 2:0.715079 3:0.995238 4:1.180952 5:0 6:0.135714 7:1.529365 8:2.10873 9:0.157937 10:0.081746 11:1.333333 12:2.324603 13:0.461905 14:1.315079 15:1.415079 16:2.145238 
-0.3 -0.3 -0.3 0.3 1:2.162698 2:2.513492 3:2.654762 4:0.403968 5:1.284921 6:2.157937 7:1.648413 8:0 9:1.592857 10:1.694444 11:1.476984 12:0 13:1.742063 14:1.556349 15:0.425397 16:0 
-0.3 -0.2706157135020645 -0.3 0.3 1:2.078571 2:2.26746 3:1.756349 4:0 5:1.53254 6:2.050794 7:1.746032 8:0.586508 9:1.892857 10:2.078571 11:2.081746 12:0 13:1.800794 14:1.846825 15:1.200794 16:0 
-0 -0.1176482941128856 -0.06319548716453137 0.06682659714355177 1:1.829365 2:1.85 3:0 4:0 5:1.313492 6:1.87381 7:0.740476 8:0 9:1.621429 10:1.42619 11:0 12:0 13:1.39127 14:1.324603 15:0 16:0 
-0.05891497860660751 -0.09610474199925326 -0.1849365246457147 0.1245934997241256 1:1.780159 2:1.672222 3:0 4:0 5:1.246825 6:1.835714 7:1.103968 8:0 9:1.709524 10:1.695238 11:1.276984 12:0 13:1.653175 14:1.542063 15:0 16:0 
-0.1690893197382475 -0.3 -0.3 0.3 1:1.786508 2:1.7 3:1.315873 4:0.250794 5:1.218254 6:0.113492 7:0.697619 8:0 9:1.715079 10:1.421429 11:0 12:0 13:0.945238 14:0.5 15:0 16:0 
-0.2774500363586583 -0 -0.255636065354071 0.2127214372800352 1:1.824603 2:1.935714 3:1.12619 4:0 5:0.64127 6:1.173016 7:0.833333 8:0 9:2.034921 10:2.276984 11:1.214286 12:0 13:1.478571 14:1.184127 15:0.097619 16:0 
-0.2266813522428635 -0.2715135371239343 -0 0.06501499543030241 1:1.784921 2:2.100794 3:1.640476 4:0.501587 5:0.661111 6:1.021429 7:0.853175 8:0 9:1.61746 10:1.807937 11:0.763492 12:0 13:1.196032 14:1.288095 15:0.053968 16:0 
-0.3 -0.03975021005914545 -0.215184058746011 -0.1824576579021912 1:1.22381 2:1.335714 3:1.057143 4:0.575397 5:1.086508 6:1.256349 7:1.865873 8:1.834921 9:0.200794 10:1.115873 11:1.89127 12:2.310317 13:0.847619 14:1.395238 15:1.218254 16:1.199206 
-0.3 -0.3 -0.3 -0.3 1:1.528571 2:1.713492 3:2.133333 4:1.287302 5:1.24127 6:1.814286 7:1.843651 8:1.82381 9:0.213492 10:1.260317 11:2.114286 12:2.225397 13:1.030159 14:1.793651 15:2.466667 16:2.364286 
-0.1218875412056747 -0 -0 -0 1:1.142063 2:1.378571 3:1.704762 4:1.116667 5:1.02381 6:1.33254 7:1.757143 8:2.043651 9:0.22619 10:1.330159 11:1.753968 12:2.270635 13:0.719048 14:1.364286 15:1.440476 16:1.357937 
-0.3 -0.2521129485884085 -0.3 -0.282020239270145 1:1.271429 2:1.411905 3:1.211905 4:0.757937 5:1.092063 6:1.310317 7:1.97619 8:2.211905 9:0.203175 10:0.978571 11:1.707143 12:2.263492 13:0.959524 14:1.770635 15:1.749206 16:1.280952 
-0.2626523710895119 -0 -0 -0 1:1.203175 2:1.926984 3:1.8 4:2.299206 5:0.383333 6:1.499206 7:1.829365 8:2.52381 9:0.848413 10:1.165079 11:1.813492 12:2.153175 13:0.692857 14:1.357143 15:1.244444 16:1.222222 
-0.3 -0.01167805374483047 -0.1630822592995409 -0.1530190122082755 1:1.361111 2:2.101587 3:2.266667 4:2.48254 5:0.12619 6:1.692063 7:1.952381 8:2.60873 9:1.053968 10:1.227778 11:1.91746 12:2.210317 13:0.704762 14:1.42381 15:1.60873 16:1.751587 
-0.3 -0.3 -0.3 -0.3 1:1.323016 2:2.126984 3:2.496032 4:2.589683 5:0.292857 6:1.777778 7:2.069048 8:2.410317 9:0.830952 10:1.300794 11:1.968254 12:2.113492 13:0.754762 14:1.415079 15:1.75 16:1.923016 
-0 -0.1558424530826036 -0 -0 1:1.353175 2:2.034127 3:2.183333 4:2.443651 5:0.270635 6:1.515079 7:1.853175 8:2.349206 9:0.686508 10:0.90873 11:1.774603 12:2.023016 13:0.389683 14:1.253175 15:1.248413 16:1.398413 
-0.3 -0 -0 -0 1:1.284921 2:1.905556 3:1.6 4:1.897619 5:0.29127 6:1.124603 7:1.504762 8:2.288095 9:1.046825 10:1.136508 11:1.766667 12:2.104762 13:0.906349 14:1.403175 15:1.300794 16:1.403175 
-0 -0.2571425492973282 -0.3 -0.3 1:0.67381 2:1.09127 3:0.714286 4:0.497619 5:0 6:0.85873 7:1.865873 8:1.988095 9:0.942063 10:1.045238 11:1.604762 12:2.405556 13:0.612698 14:1.133333 15:0.80873 16:1.315079 
-0.3 -0.3 -0.3 -0.3 1:2.203968 2:2.437302 3:2.421429 4:2.203175 5:0.842857 6:1.346825 7:1.686508 8:2.337302 9:0.653968 10:0.623016 11:1.037302 12:1.73254 13:0.553175 14:0.757937 15:0.94127 16:1.227778 
-0.09293704169899239 -0 -0 -0 1:0.953175 2:1.36746 3:1.333333 4:1.326984 5:0 6:0.989683 7:1.80873 8:2.418254 9:1.22381 10:1.456349 11:2.092063 12:1.945238 13:1.094444 14:1.378571 15:1.276984 16:1.230952 
-0.3 -0.3 -0.3 -0.3 1:1.926984 2:2.035714 3:1.924603 4:0.73254 5:0.328571 6:1.079365 7:1.521429 8:1.961111 9:1.322222 10:1.739683 11:2.945238 12:2.595238 13:0.500794 14:0.981746 15:1.498413 16:2.243651 
-0.1298322398021709 -0.3 -0.2757145045751564 -0.2952577754948662 1:0.306349 2:1.128571 3:1.400794 4:1.842857 5:0 6:0 7:1.293651 8:2.312698 9:0.178571 10:1.203175 11:2.554762 12:2.25873 13:0.076984 14:0.565873 15:0.985714 16:1.297619 
-0 -0.08380837021513669 -0.3 -0.3 1:0.319048 2:1.052381 3:1.333333 4:1.834921 5:0 6:0 7:1.266667 8:2.32381 9:0.214286 10:1.221429 11:2.568254 12:2.261905 13:0.073016 14:0.661905 15:1.05 16:1.350794 
-0 -0.1715781695364884 -0.02392339847951563 -0.1184044712654879 1:0.818254 2:1.3 3:1.215079 4:1.457937 5:0 6:0 7:1.235714 8:2.248413 9:0.663492 10:1.00873 11:1.625397 12:2.095238 13:0.475397 14:0.755556 15:0.692063 16:0 
-0.2121275158166706 -0 -0.3 -0.1116194370503962 1:0.922222 2:1.52619 3:1.338095 4:1.095238 5:0 6:0 7:1.211905 8:2.074603 9:1.228571 10:1.704762 11:1.811905 12:1.584127 13:0.916667 14:1.053175 15:0.805556 16:0 
-0.3 -0.3 -0.3 -0.3 1:1.639683 2:2.081746 3:1.834921 4:0.813492 5:0.210317 6:0.009524 7:1.856349 8:2.209524 9:1.468254 10:1.839683 11:1.742857 12:1.309524 13:1.050794 14:1.295238 15:0.821429 16:0 
-0.3 -0.3 -0 -0.3 1:1.634127 2:1.935714 3:1.862698 4:1.181746 5:0 6:0 7:2.202381 8:2.326984 9:1.423016 10:1.58254 11:1.783333 12:1.501587 13:1.042857 14:1.033333 15:0.49127 16:0 
-0.0632468045742037 -0.04821844746515837 -0.2771630424314619 -0.06821671042218226 1:1.64127 2:1.925397 3:1.93254 4:1.29127 5:0 6:0 7:2.211905 8:2.399206 9:1.453175 10:1.65873 11:1.844444 12:1.700794 13:1.064286 14:1.055556 15:0.519048 16:0 
-0.1069165010572673 -0.096053090904718 -0.1094305809894226 -0.1022719942488415 1:0.520635 2:1.184921 3:1.149206 4:1.74127 5:0 6:0 7:0.956349 8:2.168254 9:0.763492 10:1.327778 11:1.815079 12:1.534921 13:0.492063 14:0.735714 15:0.765079 16:0.68254 
